<?xml version="1.0"?>
<opencv_storage>
<point_right_24 type_id="opencv-haar-classifier">
  <size>
    24 24</size>
  <stages>
    <_>
      <!-- stage 0 -->
      <trees>
        <_>
          <!-- tree 0 -->
          <_>
            <!-- root node -->
            <feature>
              <rects>
                <_>
                  0 0 12 20 -1.</_>
                <_>
                  0 0 6 10 2.</_>
                <_>
                  6 10 6 10 2.</_></rects>
              <tilted>0</tilted></feature>
            <threshold>5.8950331062078476e-02</threshold>
            <left_val>-1.</left_val>
            <right_val>9.9999988079071045e-01</right_val></_></_></trees>
      <stage_threshold>9.9999988079071045e-01</stage_threshold>
      <parent>-1</parent>
      <next>-1</next></_>
    <_>
      <!-- stage 1 -->
      <trees>
        <_>
          <!-- tree 0 -->
          <_>
            <!-- root node -->
            <feature>
              <rects>
                <_>
                  0 1 3 14 -1.</_>
                <_>
                  0 8 3 7 2.</_></rects>
              <tilted>0</tilted></feature>
            <threshold>-6.1936508864164352e-02</threshold>
            <left_val>-1.</left_val>
            <right_val>1.</right_val></_></_></trees>
      <stage_threshold>1.</stage_threshold>
      <parent>0</parent>
      <next>-1</next></_>
    <_>
      <!-- stage 2 -->
      <trees>
        <_>
          <!-- tree 0 -->
          <_>
            <!-- root node -->
            <feature>
              <rects>
                <_>
                  0 0 18 22 -1.</_>
                <_>
                  6 0 6 22 3.</_></rects>
              <tilted>0</tilted></feature>
            <threshold>2.7612170577049255e-01</threshold>
            <left_val>-1.</left_val>
            <right_val>1.</right_val></_></_></trees>
      <stage_threshold>1.</stage_threshold>
      <parent>1</parent>
      <next>-1</next></_>
    <_>
      <!-- stage 3 -->
      <trees>
        <_>
          <!-- tree 0 -->
          <_>
            <!-- root node -->
            <feature>
              <rects>
                <_>
                  0 0 4 3 -1.</_>
                <_>
                  0 1 4 1 3.</_></rects>
              <tilted>0</tilted></feature>
            <threshold>-3.0297369812615216e-04</threshold>
            <left_val>-1.</left_val>
            <right_val>1.</right_val></_></_></trees>
      <stage_threshold>1.</stage_threshold>
      <parent>2</parent>
      <next>-1</next></_>
    <_>
      <!-- stage 4 -->
      <trees>
        <_>
          <!-- tree 0 -->
          <_>
            <!-- root node -->
            <feature>
              <rects>
                <_>
                  0 0 1 6 -1.</_>
                <_>
                  0 2 1 2 3.</_></rects>
              <tilted>0</tilted></feature>
            <threshold>3.5484288673615083e-05</threshold>
            <left_val>-1.</left_val>
            <right_val>9.9999982118606567e-01</right_val></_></_></trees>
      <stage_threshold>9.9999982118606567e-01</stage_threshold>
      <parent>3</parent>
      <next>-1</next></_>
    <_>
      <!-- stage 5 -->
      <trees>
        <_>
          <!-- tree 0 -->
          <_>
            <!-- root node -->
            <feature>
              <rects>
                <_>
                  0 7 12 10 -1.</_>
                <_>
                  0 7 6 5 2.</_>
                <_>
                  6 12 6 5 2.</_></rects>
              <tilted>0</tilted></feature>
            <threshold>3.3981550484895706e-02</threshold>
            <left_val>-1.</left_val>
            <right_val>9.9999982118606567e-01</right_val></_></_></trees>
      <stage_threshold>9.9999982118606567e-01</stage_threshold>
      <parent>4</parent>
      <next>-1</next></_></stages></point_right_24>
</opencv_storage>
